13 20 224 210 204 429 -45 -196 -186 -188 -373 -280 11 -28 0 -16 -4 -30 27 -3 6 -5 -1 13 -7 -8 -2 -19 38 3 7 14 30 -7 9 0 14 49 9 12 22 12 4 18 8 -19 -18 -43 -6 9 17 26 -64 -48 -2 -6 -1 5 0 4 -2 -4 2 20 46 19 17 17 0 -118 -75 0 1 0 1 1 68 -48 0 8 0 8 -1 0 4 1 0 4 1 -6 1 10 -2 5 -30 -25 -6 -16 19 21 92 -30 129 -184 -14 0 1 -1 1 -1 -1 -1 -1 -10 0 0 0 5
5 49 154 160 312 698 -57 -154 -152 -309 -574 6 -37 15 4 4 0 20 -23 -3 -13 -3 -7 -15 -112 42 18 -30 -8 2 3 -6 28 -4 -2 35 11 -31 -3 12 -4 15 11 -4 -27 -29 -37 -16 25 16 27 37 0 36 580 157 0 1 158 1744 0 0 0 299 15 -4 4 3 1 57 53 0 0 0 0 0 21 -7 -894 5 5 -2 0 1 -1 -6 4 3 4 1 3 -1 10 -25 -38 -38 -4 11 14 23 89 -20 18 -157 4 0 0 -1 2 0 0 0 0 0 0 0 0 0
-5 51 82 146 232 473 -29 -128 -141 -229 -504 -1298 -6 2 17 0 -1 1 0 -1 -9 -6 5 6 72 11 10 14 -1 2 4 5 11 -3 10 -7 6 3 4 10 5 5 2 4 -18 -16 -9 -13 -9 169 320 206 366 1519 363 35 0 0 1601 1708 0 0 -2 -113 6 -4 7 5 -1 2 9 0 0 0 0 0 46 -13 -600 -1 4 2 0 2 2 2 2 -1 0 1 4 1 -4 -12 9 4 2 28 18 122 -44 533 -574 2720 -5 0 0 0 -1 0 0 0 0 -16 0 0 0 11
-4 33 54 99 149 100 -36 -68 -93 -166 -62 -2629 35 -1 -4 0 2 4 -10 12 -17 -30 -13 6 -28 29 12 145 59 -9 -14 -44 3 24 89 -78 -27 -174 6 -15 66 19 -6 -47 -24 -9 24 -51 -36 17 44 68 180 94 -591 -135 0 2 -205 -1854 0 0 0 70 -1 12 18 -4 -26 -15 18 0 0 0 0 0 -121 118 928 -19 -26 5 0 2 -1 -5 2 -5 -8 -5 5 -11 -488 10 -51 40 -196 -382 7 -51 22 463 1107 -1 -13 0 1 -3 4 0 0 0 0 0 0 0 0 0
